0.31516966,0.46128216,0.09971704,-0.10034854,0.0955343,-0.026174895,0.11894873,-0.12864892,0.051890023,0.025755512,0.025957974,0.12750879,0.00031704488,0.02676241,-0.004340407,0.1714574,0.15179485,0.06995352,-0.022287926,-0.07918287,0.19701035,0.028741572,-0.022646062,-0.009600039,-0.1909633,0.012467864,0.06765446,-0.043955904,-0.09034313,-0.17749678,-0.24700166,-0.08104787,-0.006919502,0.058844835,-0.16849546,-0.018723521,-0.35694325,0.03923735,0.060878836,0.12453768,0.059174027,0.2907303,-0.015963152,0.041966435,0.102860466,-0.34177956,0.1252847,0.3445634,0.12991318,0.2223116,-0.114461735,0.13622992,0.15419237,0.10496023,-0.19110368,-0.103775285,-0.009963827,-0.27016595,-0.16847117,0.09619118,0.25992182,0.081676595,-0.1402956,0.12737657,_0.117234305,-0.037989482,0.121199585,0.18308923,0.258312,0.018157264,-0.12877461,0.13259156,0.09190251,0.16601846,0.14941259,0.24296011,0.027402451,0.0115595795,-0.011483554,0.15274113,-0.34218854,-0.09365315,-0.082802154,-0.024357103,0.23794825,-0.037148107,0.036931753,-0.010461333,-0.16116907,0.028711587,-0.45875886,0.014579763,-0.15432143,-0.39065745,-0.3786691,0.12683369,-0.045932792,0.18882437,-0.22831117,-0.007217043,-0.015440351,-0.37785915,-0.2747216,0.0386025,-0.10327326,-0.1335922,0.1527843,-0.14269717,-0.027556684,-0.08394987,-0.20474109,-0.066869035,0.03593299,0.20025656,0.021469556,0.018526308,-0.24826312,-0.0570327,0.09097117,0.005992878,-0.037597038,-0.21721137,0.17304926,0.1272832,0.13522397,0.09760883,-0.025523605,0.27658424,_-0.04392992,0.0321997,0.17899577,0.37026462,0.2813834,0.04077333,0.5713813,-0.16661578,0.055081557,-0.07870749,-0.1065973,-0.13796787,0.049728476,-0.06058447,0.0046530943,0.060836494,-0.060553182,0.05966772,0.036083292,0.022110194,0.14604647,-0.05017833,-0.050292064,0.023934444,-0.27281892,-0.025268517,-0.110573485,0.027604187,0.024692848,0.20832892,-0.12693518,-0.086480744,0.04207531,-0.15167454,0.39010975,-0.009833914,0.25871575,-0.44307378,-0.09035134,0.07751461,0.00093746977,-0.22165902,-0.17262222,-0.10646197,-0.106775746,-0.08140946,-0.13115855,-0.23088887,-0.012827406,0.45713508,0.021822708,0.02623405,-0.12266111,-0.19637127,-0.007906185,-0.017564343,-0.05057448,-0.07163041,-0.19051993,-0.044012256,0.13030916,-0.07613956,-0.30029395,0.30608344,_/0.16032422,-0.05603166,-0.17578962,-0.30997977,-0.43142208,0.043010708,-0.20544532,-0.0053863632,-0.07080061,0.010612802,-0.060127556,0.26648214,-0.21803525,0.039291825,0.04938474,0.20705386,0.22691953,-0.13984643,0.03592547,-0.057506233,-0.09401755,0.079870105,-0.08140792,-0.006733796,0.22169363,-0.04163214,0.1492658,0.09070856,-0.2562298,-0.1923281,-0.1814629,-0.12607838,0.04185561,0.09429774,-0.23146458,-0.0043083234,-0.070090376,0.35425204,-0.18695703,-0.2385822,0.03418111,0.22341537,-0.12212229,0.12980129,-0.19211058,0.06252498,0.039994992,0.26027375,-0.12368147,-0.3001701,-0.09823506,0.028277472,0.26460755,0.2487459,-0.14563096,0.075701125,0.019222634,-0.27692515,-0.040949523,0.12612407,0.071104795,-0.17044659,0.14668886,-0.06395387,_-0.13962933,-0.28032634,-0.21661402,-0.0745195,-0.08847511,-0.023790946,-0.5890308,0.18486476,0.11056427,0.16589396,0.18832256,0.17605211,-0.18265907,-0.13665827,0.07035999,0.13581847,-0.28121385,-0.0346418,-0.26094922,-0.41230005,-0.044563055,-0.080613926,0.16938001,-0.037297357,0.31039202,-0.035948817,-0.414364,-0.17344643,-0.41064972,-0.3521611,-0.38170913,0.19067377,-0.26756564,0.27866355,-0.094031654,-0.02121419,0.36062565,0.09364983,-0.1311977,-0.01718478,-0.034079164,-0.21389256,0.13925943,-0.19713953,0.15309945,0.23855817,-0.08928562,-0.16897488,-0.12626015,-0.32432202,0.124140896,-0.14823064,-0.07805835,-0.0075011216,0.1763198,0.036853608,0.0038884832,-0.13910508,0.55045485,0.104320005,-0.31180394,-0.0057708183,0.44025618,0.09162477,_-0.1518344,-0.21027115,0.027231637,0.28103474,-0.08465603,-0.06276408,-0.10969721,-0.025217932,-0.053657383,-0.16145757,-0.0055596656,-0.2604116,0.2688181,0.027779657,0.028446643,0.13896202,-0.15298013,0.101076394,-0.055301495,-0.32272312,-0.3599505,0.057850603,-0.04913138,0.0008012481,0.21644697,0.039934132,-0.18703496,0.055763785,0.13865183,0.18442386,-0.04230656,-0.014918491,-0.06260527,0.0011545458,0.2295237,0.016144633,-0.20507726,-0.19869028,0.13684845,-0.031393286,-0.06851373,-0.28685066,-0.027147196,-0.033025384,0.036590923,0.3733217,-0.07770991,-0.25811648,0.0114774285,-0.1845193,-0.07593519,-0.048346333,0.11730602,-0.22484,0.031038646,-0.089624874,0.009597812,0.12316149,0.0711659,-0.14948547,-0.20869178,0.10411949,0.14758494,-0.09010678,_/-0.017974792,-0.011860073,-0.09357864,-0.17510495,-0.23550235,-0.017094312,0.17603222,-0.08875973,-0.005420456,0.0005539197,-0.040884793,0.014342962,-0.29010865,-0.051395375,-0.06018654,0.060609505,0.25235766,0.07971874,0.25476387,0.47036162,0.12920353,-0.013661578,0.032605473,-0.018419383,-0.025789207,0.018041607,0.65157765,0.14823169,-0.018739626,0.2998902,0.23515396,-0.005302102,0.3005844,-0.13240612,-0.073067494,0.0036993157,0.3093533,0.23436876,-0.137879,-0.12329348,-0.10255537,0.21708442,-0.077148415,0.23926423,0.010388464,-0.013345653,0.15862249,-0.04858037,-0.087261215,-0.14991474,-0.082388274,0.032608148,-0.039115857,0.09614017,-0.095685765,0.059906613,-0.024716869,0.08743019,-0.4755318,-0.0037488346,0.26118106,0.04183402,-0.24224249,-0.07857454,_-0.18985307,-0.14737855,-0.04123603,-0.20489635,0.091229744,-0.022846004,-0.2333998,0.13826226,0.021904238,0.11103853,-0.29085642,-0.2625406,0.0075780647,0.022251574,-0.032595187,0.09882826,0.04803258,-0.0922148,0.04157072,0.09537376,0.06970185,0.03141318,0.054202624,0.047451116,0.125427,-0.004387045,-0.11152599,-0.13023774,0.016672889,-0.042475123,0.2164949,0.085660845,-0.0072824894,0.07102688,-0.28559712,-0.010469179,0.027972665,0.22043885,0.037380077,-0.19046263,0.07430194,-0.17791244,0.14139384,-0.024302702,-0.018218042,-0.10981872,0.15694417,0.057955798,0.02576736,-0.22063434,0.1565993,-0.057131264,-0.13897511,-0.108933814,0.20677212,-0.03455016,0.029633231,0.29303637,0.026572974,-0.16380103,-0.20031945,-0.15355888,-0.023849584,-0.41230422,_-0.31603637,0.04867041,0.107262745,-0.091463804,0.08483841,0.04848739,0.1771559,-0.10739139,-0.1860573,-0.15055268,0.022252468,-0.23760313,0.29834354,0.07863505,-0.035979826,0.09997298,0.17385401,0.017930046,-0.05327584,0.041259598,-0.29360288,-0.028570723,-0.13286929,-0.0062671187,-0.04574976,-0.0017235081,0.07168435,-0.06303063,0.48944297,0.45645636,0.43225262,-0.12306459,0.009428136,-0.23341978,0.08878284,-0.023980409,-0.45456994,0.030009996,0.31293628,0.07025556,0.026143514,-0.122478254,-0.09118239,0.08257555,0.0008310435,-0.1151014,0.008157026,0.09399454,0.061361384,-0.09889282,0.065229945,0.025096443,-0.05542314,-0.17030618,0.11699295,0.07331229,0.026570156,0.42616764,-0.121180475,-0.17362395,-0.09246399,0.08368409,-0.18256392,-0.16030663,_/*