0.31516966,0.16032422,-0.017974792,_0.117234305,-0.13962933,-0.18985307,_-0.04392992,-0.1518344,-0.31603637,_/*0.46128216,-0.05603166,-0.011860073,_-0.037989482,-0.28032634,-0.14737855,_0.0321997,-0.21027115,0.04867041,_/*0.09971704,-0.17578962,-0.09357864,_0.121199585,-0.21661402,-0.04123603,_0.17899577,0.027231637,0.107262745,_/*-0.10034854,-0.30997977,-0.17510495,_0.18308923,-0.0745195,-0.20489635,_0.37026462,0.28103474,-0.091463804,_/*0.0955343,-0.43142208,-0.23550235,_0.258312,-0.08847511,0.091229744,_0.2813834,-0.08465603,0.08483841,_/*-0.026174895,0.043010708,-0.017094312,_0.018157264,-0.023790946,-0.022846004,_0.04077333,-0.06276408,0.04848739,_/*0.11894873,-0.20544532,0.17603222,_-0.12877461,-0.5890308,-0.2333998,_0.5713813,-0.10969721,0.1771559,_/*-0.12864892,-0.0053863632,-0.08875973,_0.13259156,0.18486476,0.13826226,_-0.16661578,-0.025217932,-0.10739139,_/*0.051890023,-0.07080061,-0.005420456,_0.09190251,0.11056427,0.021904238,_0.055081557,-0.053657383,-0.1860573,_/*0.025755512,0.010612802,0.0005539197,_0.16601846,0.16589396,0.11103853,_-0.07870749,-0.16145757,-0.15055268,_/*0.025957974,-0.060127556,-0.040884793,_0.14941259,0.18832256,-0.29085642,_-0.1065973,-0.0055596656,0.022252468,_/*0.12750879,0.26648214,0.014342962,_0.24296011,0.17605211,-0.2625406,_-0.13796787,-0.2604116,-0.23760313,_/*0.00031704488,-0.21803525,-0.29010865,_0.027402451,-0.18265907,0.0075780647,_0.049728476,0.2688181,0.29834354,_/*0.02676241,0.039291825,-0.051395375,_0.0115595795,-0.13665827,0.022251574,_-0.06058447,0.027779657,0.07863505,_/*-0.004340407,0.04938474,-0.06018654,_-0.011483554,0.07035999,-0.032595187,_0.0046530943,0.028446643,-0.035979826,_/*0.1714574,0.20705386,0.060609505,_0.15274113,0.13581847,0.09882826,_0.060836494,0.13896202,0.09997298,_/*0.15179485,0.22691953,0.25235766,_-0.34218854,-0.28121385,0.04803258,_-0.060553182,-0.15298013,0.17385401,_/*0.06995352,-0.13984643,0.07971874,_-0.09365315,-0.0346418,-0.0922148,_0.05966772,0.101076394,0.017930046,_/*-0.022287926,0.03592547,0.25476387,_-0.082802154,-0.26094922,0.04157072,_0.036083292,-0.055301495,-0.05327584,_/*-0.07918287,-0.057506233,0.47036162,_-0.024357103,-0.41230005,0.09537376,_0.022110194,-0.32272312,0.041259598,_/*0.19701035,-0.09401755,0.12920353,_0.23794825,-0.044563055,0.06970185,_0.14604647,-0.3599505,-0.29360288,_/*0.028741572,0.079870105,-0.013661578,_-0.037148107,-0.080613926,0.03141318,_-0.05017833,0.057850603,-0.028570723,_/*-0.022646062,-0.08140792,0.032605473,_0.036931753,0.16938001,0.054202624,_-0.050292064,-0.04913138,-0.13286929,_/*-0.009600039,-0.006733796,-0.018419383,_-0.010461333,-0.037297357,0.047451116,_0.023934444,0.0008012481,-0.0062671187,_/*-0.1909633,0.22169363,-0.025789207,_-0.16116907,0.31039202,0.125427,_-0.27281892,0.21644697,-0.04574976,_/*0.012467864,-0.04163214,0.018041607,_0.028711587,-0.035948817,-0.004387045,_-0.025268517,0.039934132,-0.0017235081,_/*0.06765446,0.1492658,0.65157765,_-0.45875886,-0.414364,-0.11152599,_-0.110573485,-0.18703496,0.07168435,_/*-0.043955904,0.09070856,0.14823169,_0.014579763,-0.17344643,-0.13023774,_0.027604187,0.055763785,-0.06303063,_/*-0.09034313,-0.2562298,-0.018739626,_-0.15432143,-0.41064972,0.016672889,_0.024692848,0.13865183,0.48944297,_/*-0.17749678,-0.1923281,0.2998902,_-0.39065745,-0.3521611,-0.042475123,_0.20832892,0.18442386,0.45645636,_/*-0.24700166,-0.1814629,0.23515396,_-0.3786691,-0.38170913,0.2164949,_-0.12693518,-0.04230656,0.43225262,_/*-0.08104787,-0.12607838,-0.005302102,_0.12683369,0.19067377,0.085660845,_-0.086480744,-0.014918491,-0.12306459,_/*-0.006919502,0.04185561,0.3005844,_-0.045932792,-0.26756564,-0.0072824894,_0.04207531,-0.06260527,0.009428136,_/*0.058844835,0.09429774,-0.13240612,_0.18882437,0.27866355,0.07102688,_-0.15167454,0.0011545458,-0.23341978,_/*-0.16849546,-0.23146458,-0.073067494,_-0.22831117,-0.094031654,-0.28559712,_0.39010975,0.2295237,0.08878284,_/*-0.018723521,-0.0043083234,0.0036993157,_-0.007217043,-0.02121419,-0.010469179,_-0.009833914,0.016144633,-0.023980409,_/*-0.35694325,-0.070090376,0.3093533,_-0.015440351,0.36062565,0.027972665,_0.25871575,-0.20507726,-0.45456994,_/*0.03923735,0.35425204,0.23436876,_-0.37785915,0.09364983,0.22043885,_-0.44307378,-0.19869028,0.030009996,_/*0.060878836,-0.18695703,-0.137879,_-0.2747216,-0.1311977,0.037380077,_-0.09035134,0.13684845,0.31293628,_/*0.12453768,-0.2385822,-0.12329348,_0.0386025,-0.01718478,-0.19046263,_0.07751461,-0.031393286,0.07025556,_/*0.059174027,0.03418111,-0.10255537,_-0.10327326,-0.034079164,0.07430194,_0.00093746977,-0.06851373,0.026143514,_/*0.2907303,0.22341537,0.21708442,_-0.1335922,-0.21389256,-0.17791244,_-0.22165902,-0.28685066,-0.122478254,_/*-0.015963152,-0.12212229,-0.077148415,_0.1527843,0.13925943,0.14139384,_-0.17262222,-0.027147196,-0.09118239,_/*0.041966435,0.12980129,0.23926423,_-0.14269717,-0.19713953,-0.024302702,_-0.10646197,-0.033025384,0.08257555,_/*0.102860466,-0.19211058,0.010388464,_-0.027556684,0.15309945,-0.018218042,_-0.106775746,0.036590923,0.0008310435,_/*-0.34177956,0.06252498,-0.013345653,_-0.08394987,0.23855817,-0.10981872,_-0.08140946,0.3733217,-0.1151014,_/*0.1252847,0.039994992,0.15862249,_-0.20474109,-0.08928562,0.15694417,_-0.13115855,-0.07770991,0.008157026,_/*0.3445634,0.26027375,-0.04858037,_-0.066869035,-0.16897488,0.057955798,_-0.23088887,-0.25811648,0.09399454,_/*0.12991318,-0.12368147,-0.087261215,_0.03593299,-0.12626015,0.02576736,_-0.012827406,0.0114774285,0.061361384,_/*0.2223116,-0.3001701,-0.14991474,_0.20025656,-0.32432202,-0.22063434,_0.45713508,-0.1845193,-0.09889282,_/*-0.114461735,-0.09823506,-0.082388274,_0.021469556,0.124140896,0.1565993,_0.021822708,-0.07593519,0.065229945,_/*0.13622992,0.028277472,0.032608148,_0.018526308,-0.14823064,-0.057131264,_0.02623405,-0.048346333,0.025096443,_/*0.15419237,0.26460755,-0.039115857,_-0.24826312,-0.07805835,-0.13897511,_-0.12266111,0.11730602,-0.05542314,_/*0.10496023,0.2487459,0.09614017,_-0.0570327,-0.0075011216,-0.108933814,_-0.19637127,-0.22484,-0.17030618,_/*-0.19110368,-0.14563096,-0.095685765,_0.09097117,0.1763198,0.20677212,_-0.007906185,0.031038646,0.11699295,_/*-0.103775285,0.075701125,0.059906613,_0.005992878,0.036853608,-0.03455016,_-0.017564343,-0.089624874,0.07331229,_/*-0.009963827,0.019222634,-0.024716869,_-0.037597038,0.0038884832,0.029633231,_-0.05057448,0.009597812,0.026570156,_/*-0.27016595,-0.27692515,0.08743019,_-0.21721137,-0.13910508,0.29303637,_-0.07163041,0.12316149,0.42616764,_/*-0.16847117,-0.040949523,-0.4755318,_0.17304926,0.55045485,0.026572974,_-0.19051993,0.0711659,-0.121180475,_/*0.09619118,0.12612407,-0.0037488346,_0.1272832,0.104320005,-0.16380103,_-0.044012256,-0.14948547,-0.17362395,_/*0.25992182,0.071104795,0.26118106,_0.13522397,-0.31180394,-0.20031945,_0.13030916,-0.20869178,-0.09246399,_/*0.081676595,-0.17044659,0.04183402,_0.09760883,-0.0057708183,-0.15355888,_-0.07613956,0.10411949,0.08368409,_/*-0.1402956,0.14668886,-0.24224249,_-0.025523605,0.44025618,-0.023849584,_-0.30029395,0.14758494,-0.18256392,_/*0.12737657,-0.06395387,-0.07857454,_0.27658424,0.09162477,-0.41230422,_0.30608344,-0.09010678,-0.16030663,_/*