0.21980323,0.31969455,0.047949135,-0.018291606,0.020049853,0.013834655,-0.10397486,-0.03857691,-0.07360255,-0.059644986,-0.025168873,-0.18022895,0.20741545,0.042237286,-0.07419635,0.0019248966,-0.06525746,-0.048515428,-0.09735567,-0.17893338,-0.15395449,0.0048571704,-0.06891942,-0.00017783292,-0.08058733,-0.04994732,-0.12601388,0.0039159884,0.10796168,0.21818659,0.060557656,0.047473513,-0.08535494,0.15653068,-0.14971541,-0.022711629,-0.045537855,0.104712985,-0.036236633,-0.07195717,-0.005413348,0.1682375,-0.060473472,-0.09660068,-0.08049706,-0.04761853,0.0484845,0.07229877,0.0646341,0.071510494,-0.08635752,-0.017216159,0.1044624,0.15741879,-0.23442945,0.06288534,-0.05674962,0.11610643,-0.12133279,-0.038443584,-0.22682317,0.13336003,-0.11572224,-0.14886533,_-0.06843891,-0.0032822029,-0.1596489,-0.13079938,-0.081794135,0.0057636085,0.027089253,0.0047990032,-0.07643394,0.074104704,0.07398638,-0.11240465,0.019073008,0.045884695,0.0023138814,0.118148126,0.17651038,0.097676925,0.04637509,-0.0889393,-0.065430656,0.042029746,0.08604789,0.04118801,-0.26612487,0.048011385,-0.15570009,0.017637162,-0.020851701,0.14658126,-0.21766578,0.0037990748,0.0673323,0.062714376,-0.16237529,-0.0136937555,-0.0664425,0.092657834,-0.083401546,0.09176836,0.0072560804,-0.039715897,0.0880975,0.07905038,-0.0789532,0.05515683,0.08928798,0.056645405,-0.0568839,0.19322106,-0.030404823,0.0008921132,-0.07485713,0.048992172,-0.04044246,-0.05996254,-0.014581948,0.21015042,0.030864568,-0.058094945,-0.16653486,0.028681032,0.002553608,-0.25630113,_0.059455033,-0.14735855,-0.11561857,-0.121592715,-0.23851624,-0.0067157247,0.37224767,0.033381376,-0.020787064,0.068195805,0.008419078,-0.040830594,-0.23810634,-0.02582686,0.0067741387,0.08443749,0.0923804,-0.08115224,0.057838578,0.09822697,0.03575221,-0.036471378,0.060150407,0.03721724,-0.19109769,0.009664038,0.052463062,-0.023808502,0.0060575246,0.031652674,-0.16623847,-0.010161578,0.20466171,0.09060608,0.26915184,0.0646735,-0.21532956,0.14321053,-0.11529256,0.3658268,-0.03396537,0.0077074445,0.079438254,0.14055194,0.055705424,0.09279661,0.09247696,-0.14973502,-0.085544676,0.3156938,0.12571944,0.033249356,-0.052596416,-0.12749355,0.20208743,0.06286228,0.116636544,-0.021282248,-0.027348716,-0.035876103,-0.093425855,-0.15142141,-0.13987763,-0.081885956,_/-0.100399606,-0.062002834,-0.0019321571,0.11517632,0.04062394,0.025484268,-0.11789957,-0.050542716,-0.074184984,0.1248063,0.014758993,-0.12508765,0.15932994,-0.016808165,0.041126844,0.16831993,-0.1704164,0.00074789266,-0.08554582,-0.064693175,-0.13483049,-0.022435073,0.077287495,0.028845027,0.043765064,0.05816568,0.11169032,0.033730917,-0.1628564,0.29382846,-0.058652192,-0.077585176,-0.07757141,0.097527295,-0.13625723,0.04588065,0.036711123,-0.16999479,-0.14193681,-0.07395905,0.0036664626,0.22182779,3.3713353e-05,-0.06300159,0.10459893,0.14115709,-0.05170786,-0.17265782,0.07670736,-0.10837939,-0.12745461,-0.05629599,0.09457953,0.029637503,-0.1247647,-0.001408186,0.018151456,0.17246695,-0.16237137,-0.12046198,-0.10692901,0.07988717,0.10606926,-0.023534575,_-0.08710783,-0.09207924,-0.0063815797,0.024287952,-0.04584367,-0.0792235,-0.0035413764,0.081628665,0.115392946,-0.047108825,0.22803882,0.14645384,0.048306752,-0.028396122,0.08436961,0.17364022,0.04911922,0.14142914,0.0065313624,-0.0677497,-0.053640407,-0.07764714,0.017904196,-0.038638163,-0.035256848,-0.036420885,-0.24147412,-0.037439406,-0.20053007,-0.03316458,-0.14472514,0.055293847,0.002709571,-0.07845273,-0.009098778,-0.03215475,0.3500478,0.1360399,0.025538746,0.06520383,0.03652385,-0.041900788,0.00067267707,-0.08249024,0.098796256,0.040986534,0.029906617,0.09777999,0.02329633,-0.12657316,-0.05701045,0.0337873,-0.06527557,0.025933364,-0.0355815,0.08266998,-0.056382135,0.024578223,0.4359762,0.06174923,0.108379826,0.10783278,0.32173532,0.13600884,_-0.054995257,0.018033016,-0.047391653,-0.19528075,-0.14901759,-0.050604794,0.14480352,-0.008126669,0.0010555509,-0.08466738,-0.07314943,0.108739845,-0.19267577,0.03340921,-0.048375107,0.046340384,0.16896033,-0.109115735,0.0658071,-0.046302173,0.056600675,0.10216894,-0.13856971,-0.08860891,-0.034032322,-0.010200721,-0.049285457,-0.106766626,0.04539747,-0.1940692,-0.07579626,0.010120125,0.024104623,-0.12659313,0.097557485,0.0051983786,-0.08940502,0.17191592,0.071271785,-0.098744474,0.050327573,-0.26967353,-0.09058494,0.15331824,-0.06910597,0.033314656,0.10555625,0.14145438,-0.0009336318,0.02725668,0.12187016,-0.04363488,0.025945714,-0.18497407,0.12506212,-0.02300012,0.057861753,-0.07769526,0.12513767,0.022549756,0.26581505,-0.07609256,0.063772075,0.019637847,_/-0.13975403,-0.16415904,0.11674552,0.20793056,0.13850263,-0.0030561348,-0.107509926,-0.053660337,-0.06373644,0.11288139,-0.117211245,-0.09745012,-0.009319332,0.026214994,-0.07892695,-0.0076064407,-0.2201165,0.13465753,0.14601824,0.331179,0.0841104,-0.0032758997,0.023628062,0.012787895,0.17884162,0.03384478,0.41527504,0.04437275,-0.13389695,0.012190148,-0.009320316,-0.016672898,0.050246086,0.05877472,-0.04807308,0.030621804,-0.15421805,-0.29791093,-0.10414524,0.01901914,-0.0530584,0.1802627,0.007904105,-0.1404098,-0.047185715,-0.024269715,-0.03019526,-0.16622195,-0.09794081,-0.03555123,0.15659124,-0.06948742,0.16466628,0.124527335,0.106816754,-0.08981907,0.0041006785,-0.06734378,-0.17754205,-0.051382963,-0.024708033,-0.07937525,-0.096361145,0.11523321,_-0.06335191,0.0413972,0.16111694,0.12288205,0.24061875,-0.028475802,-0.098101355,0.09315472,0.02663908,0.021216137,-0.025793957,0.14089452,0.06771754,-0.0633783,0.009148367,0.14933328,-0.08425339,-0.011770815,-0.067739956,0.14628807,0.26402217,-0.013586438,-0.07836769,0.005418658,0.19663057,-0.04117798,0.06980204,0.09447728,0.0074282796,-0.10921154,0.21542256,0.037477992,-0.0737926,-0.11335931,-0.018651009,-0.06566999,-0.0025234402,-0.15562789,0.012491883,-0.15497403,-0.10703003,-0.10788509,0.039257757,-0.04748259,-0.002367795,-0.11068442,-0.15061271,0.022235816,0.029859923,-0.11839765,-0.05114157,0.009946238,-0.058088597,-0.06993869,-0.006312568,-0.005132051,-0.08213072,-0.14473139,-0.044920683,-0.014284473,0.22447637,-0.054251853,0.024587877,0.20765887,_0.1725371,0.055193983,0.0062496252,0.018351702,0.10129337,0.08815499,-0.14245024,-0.053764913,0.15215687,-0.16422333,-0.09793858,0.18093167,-0.07777175,-0.0055084876,0.06478445,0.13964666,0.07006516,-0.10130346,-0.11510408,-0.14079899,0.02694375,0.0071048057,0.008935665,0.023061024,0.2351913,-0.010870853,-0.17319155,-0.021658316,0.32386297,-0.33644736,0.3116185,-0.036673762,-0.0742991,-0.17745823,0.13635351,0.052092623,0.16555975,0.0051881005,0.37055326,-0.11579945,0.067199595,-0.1778656,-0.019426702,0.04577501,0.010590584,-0.17919068,-0.120920405,0.08713125,0.034954846,-0.2624816,-0.05817294,0.12504044,-0.11911133,-0.026743822,-0.0022668194,-0.030187817,0.018028706,-0.21675111,-0.08218882,0.14981239,0.10013731,0.026950786,-0.15435132,0.027476823,_/*