0.21980323,-0.100399606,-0.13975403,_-0.06843891,-0.08710783,-0.06335191,_0.059455033,-0.054995257,0.1725371,_/0.31969455,-0.062002834,-0.16415904,_-0.0032822029,-0.09207924,0.0413972,_-0.14735855,0.018033016,0.055193983,_/0.047949135,-0.0019321571,0.11674552,_-0.1596489,-0.0063815797,0.16111694,_-0.11561857,-0.047391653,0.0062496252,_/-0.018291606,0.11517632,0.20793056,_-0.13079938,0.024287952,0.12288205,_-0.121592715,-0.19528075,0.018351702,_/0.020049853,0.04062394,0.13850263,_-0.081794135,-0.04584367,0.24061875,_-0.23851624,-0.14901759,0.10129337,_/0.013834655,0.025484268,-0.0030561348,_0.0057636085,-0.0792235,-0.028475802,_-0.0067157247,-0.050604794,0.08815499,_/-0.10397486,-0.11789957,-0.107509926,_0.027089253,-0.0035413764,-0.098101355,_0.37224767,0.14480352,-0.14245024,_/-0.03857691,-0.050542716,-0.053660337,_0.0047990032,0.081628665,0.09315472,_0.033381376,-0.008126669,-0.053764913,_/-0.07360255,-0.074184984,-0.06373644,_-0.07643394,0.115392946,0.02663908,_-0.020787064,0.0010555509,0.15215687,_/-0.059644986,0.1248063,0.11288139,_0.074104704,-0.047108825,0.021216137,_0.068195805,-0.08466738,-0.16422333,_/-0.025168873,0.014758993,-0.117211245,_0.07398638,0.22803882,-0.025793957,_0.008419078,-0.07314943,-0.09793858,_/-0.18022895,-0.12508765,-0.09745012,_-0.11240465,0.14645384,0.14089452,_-0.040830594,0.108739845,0.18093167,_/0.20741545,0.15932994,-0.009319332,_0.019073008,0.048306752,0.06771754,_-0.23810634,-0.19267577,-0.07777175,_/0.042237286,-0.016808165,0.026214994,_0.045884695,-0.028396122,-0.0633783,_-0.02582686,0.03340921,-0.0055084876,_/-0.07419635,0.041126844,-0.07892695,_0.0023138814,0.08436961,0.009148367,_0.0067741387,-0.048375107,0.06478445,_/0.0019248966,0.16831993,-0.0076064407,_0.118148126,0.17364022,0.14933328,_0.08443749,0.046340384,0.13964666,_/-0.06525746,-0.1704164,-0.2201165,_0.17651038,0.04911922,-0.08425339,_0.0923804,0.16896033,0.07006516,_/-0.048515428,0.00074789266,0.13465753,_0.097676925,0.14142914,-0.011770815,_-0.08115224,-0.109115735,-0.10130346,_/-0.09735567,-0.08554582,0.14601824,_0.04637509,0.0065313624,-0.067739956,_0.057838578,0.0658071,-0.11510408,_/-0.17893338,-0.064693175,0.331179,_-0.0889393,-0.0677497,0.14628807,_0.09822697,-0.046302173,-0.14079899,_/-0.15395449,-0.13483049,0.0841104,_-0.065430656,-0.053640407,0.26402217,_0.03575221,0.056600675,0.02694375,_/0.0048571704,-0.022435073,-0.0032758997,_0.042029746,-0.07764714,-0.013586438,_-0.036471378,0.10216894,0.0071048057,_/-0.06891942,0.077287495,0.023628062,_0.08604789,0.017904196,-0.07836769,_0.060150407,-0.13856971,0.008935665,_/-0.00017783292,0.028845027,0.012787895,_0.04118801,-0.038638163,0.005418658,_0.03721724,-0.08860891,0.023061024,_/-0.08058733,0.043765064,0.17884162,_-0.26612487,-0.035256848,0.19663057,_-0.19109769,-0.034032322,0.2351913,_/-0.04994732,0.05816568,0.03384478,_0.048011385,-0.036420885,-0.04117798,_0.009664038,-0.010200721,-0.010870853,_/-0.12601388,0.11169032,0.41527504,_-0.15570009,-0.24147412,0.06980204,_0.052463062,-0.049285457,-0.17319155,_/0.0039159884,0.033730917,0.04437275,_0.017637162,-0.037439406,0.09447728,_-0.023808502,-0.106766626,-0.021658316,_/0.10796168,-0.1628564,-0.13389695,_-0.020851701,-0.20053007,0.0074282796,_0.0060575246,0.04539747,0.32386297,_/0.21818659,0.29382846,0.012190148,_0.14658126,-0.03316458,-0.10921154,_0.031652674,-0.1940692,-0.33644736,_/0.060557656,-0.058652192,-0.009320316,_-0.21766578,-0.14472514,0.21542256,_-0.16623847,-0.07579626,0.3116185,_/0.047473513,-0.077585176,-0.016672898,_0.0037990748,0.055293847,0.037477992,_-0.010161578,0.010120125,-0.036673762,_/-0.08535494,-0.07757141,0.050246086,_0.0673323,0.002709571,-0.0737926,_0.20466171,0.024104623,-0.0742991,_/0.15653068,0.097527295,0.05877472,_0.062714376,-0.07845273,-0.11335931,_0.09060608,-0.12659313,-0.17745823,_/-0.14971541,-0.13625723,-0.04807308,_-0.16237529,-0.009098778,-0.018651009,_0.26915184,0.097557485,0.13635351,_/-0.022711629,0.04588065,0.030621804,_-0.0136937555,-0.03215475,-0.06566999,_0.0646735,0.0051983786,0.052092623,_/-0.045537855,0.036711123,-0.15421805,_-0.0664425,0.3500478,-0.0025234402,_-0.21532956,-0.08940502,0.16555975,_/0.104712985,-0.16999479,-0.29791093,_0.092657834,0.1360399,-0.15562789,_0.14321053,0.17191592,0.0051881005,_/-0.036236633,-0.14193681,-0.10414524,_-0.083401546,0.025538746,0.012491883,_-0.11529256,0.071271785,0.37055326,_/-0.07195717,-0.07395905,0.01901914,_0.09176836,0.06520383,-0.15497403,_0.3658268,-0.098744474,-0.11579945,_/-0.005413348,0.0036664626,-0.0530584,_0.0072560804,0.03652385,-0.10703003,_-0.03396537,0.050327573,0.067199595,_/0.1682375,0.22182779,0.1802627,_-0.039715897,-0.041900788,-0.10788509,_0.0077074445,-0.26967353,-0.1778656,_/-0.060473472,3.3713353e-05,0.007904105,_0.0880975,0.00067267707,0.039257757,_0.079438254,-0.09058494,-0.019426702,_/-0.09660068,-0.06300159,-0.1404098,_0.07905038,-0.08249024,-0.04748259,_0.14055194,0.15331824,0.04577501,_/-0.08049706,0.10459893,-0.047185715,_-0.0789532,0.098796256,-0.002367795,_0.055705424,-0.06910597,0.010590584,_/-0.04761853,0.14115709,-0.024269715,_0.05515683,0.040986534,-0.11068442,_0.09279661,0.033314656,-0.17919068,_/0.0484845,-0.05170786,-0.03019526,_0.08928798,0.029906617,-0.15061271,_0.09247696,0.10555625,-0.120920405,_/0.07229877,-0.17265782,-0.16622195,_0.056645405,0.09777999,0.022235816,_-0.14973502,0.14145438,0.08713125,_/0.0646341,0.07670736,-0.09794081,_-0.0568839,0.02329633,0.029859923,_-0.085544676,-0.0009336318,0.034954846,_/0.071510494,-0.10837939,-0.03555123,_0.19322106,-0.12657316,-0.11839765,_0.3156938,0.02725668,-0.2624816,_/-0.08635752,-0.12745461,0.15659124,_-0.030404823,-0.05701045,-0.05114157,_0.12571944,0.12187016,-0.05817294,_/-0.017216159,-0.05629599,-0.06948742,_0.0008921132,0.0337873,0.009946238,_0.033249356,-0.04363488,0.12504044,_/0.1044624,0.09457953,0.16466628,_-0.07485713,-0.06527557,-0.058088597,_-0.052596416,0.025945714,-0.11911133,_/0.15741879,0.029637503,0.124527335,_0.048992172,0.025933364,-0.06993869,_-0.12749355,-0.18497407,-0.026743822,_/-0.23442945,-0.1247647,0.106816754,_-0.04044246,-0.0355815,-0.006312568,_0.20208743,0.12506212,-0.0022668194,_/0.06288534,-0.001408186,-0.08981907,_-0.05996254,0.08266998,-0.005132051,_0.06286228,-0.02300012,-0.030187817,_/-0.05674962,0.018151456,0.0041006785,_-0.014581948,-0.056382135,-0.08213072,_0.116636544,0.057861753,0.018028706,_/0.11610643,0.17246695,-0.06734378,_0.21015042,0.024578223,-0.14473139,_-0.021282248,-0.07769526,-0.21675111,_/-0.12133279,-0.16237137,-0.17754205,_0.030864568,0.4359762,-0.044920683,_-0.027348716,0.12513767,-0.08218882,_/-0.038443584,-0.12046198,-0.051382963,_-0.058094945,0.06174923,-0.014284473,_-0.035876103,0.022549756,0.14981239,_/-0.22682317,-0.10692901,-0.024708033,_-0.16653486,0.108379826,0.22447637,_-0.093425855,0.26581505,0.10013731,_/0.13336003,0.07988717,-0.07937525,_0.028681032,0.10783278,-0.054251853,_-0.15142141,-0.07609256,0.026950786,_/-0.11572224,0.10606926,-0.096361145,_0.002553608,0.32173532,0.024587877,_-0.13987763,0.063772075,-0.15435132,_/-0.14886533,-0.023534575,0.11523321,_-0.25630113,0.13600884,0.20765887,_-0.081885956,0.019637847,0.027476823,_/*